<?xml version="1.0"?>
<opencv_storage>
<stage15>
  <maxWeakCount>7</maxWeakCount>
  <stageThreshold>-8.2058525085449219e-01</stageThreshold>
  <weakClassifiers>
    <_>
      <internalNodes>
        0 -1 1572089 -2.3022899404168129e-03</internalNodes>
      <leafValues>
        5.2941179275512695e-01 -4.4360902905464172e-01</leafValues></_>
    <_>
      <internalNodes>
        0 -1 872603 -1.6631931066513062e-03</internalNodes>
      <leafValues>
        6.6361093521118164e-01 -1.9443731009960175e-01</leafValues></_>
    <_>
      <internalNodes>
        0 -1 1568886 1.3504428789019585e-02</internalNodes>
      <leafValues>
        -2.3209556937217712e-01 4.6902820467948914e-01</leafValues></_>
    <_>
      <internalNodes>
        0 -1 675334 -1.5219608030747622e-04</internalNodes>
      <leafValues>
        4.7988396883010864e-01 -2.3646606504917145e-01</leafValues></_>
    <_>
      <internalNodes>
        0 -1 1889668 -2.2347001358866692e-03</internalNodes>
      <leafValues>
        5.9562116861343384e-01 -2.1056644618511200e-01</leafValues></_>
    <_>
      <internalNodes>
        0 -1 1517246 -3.0455086744041182e-05</internalNodes>
      <leafValues>
        -5.6363439559936523e-01 2.4193297326564789e-01</leafValues></_>
    <_>
      <internalNodes>
        0 -1 1861438 -1.4152811490930617e-04</internalNodes>
      <leafValues>
        3.4387356042861938e-01 -4.0176370739936829e-01</leafValues></_></weakClassifiers></stage15>
</opencv_storage>
