<?xml version="1.0"?>
<opencv_storage>
<stage6>
  <maxWeakCount>5</maxWeakCount>
  <stageThreshold>-1.0881956815719604e+00</stageThreshold>
  <weakClassifiers>
    <_>
      <internalNodes>
        0 -1 1128740 -3.5669275093823671e-03</internalNodes>
      <leafValues>
        -4.8314607143402100e-01 8.7878787517547607e-01</leafValues></_>
    <_>
      <internalNodes>
        0 -1 1831945 -9.9183931946754456e-02</internalNodes>
      <leafValues>
        -5.5344951152801514e-01 3.0015861988067627e-01</leafValues></_>
    <_>
      <internalNodes>
        0 -1 343559 -5.7257869048044086e-04</internalNodes>
      <leafValues>
        5.0954192876815796e-01 -3.7484273314476013e-01</leafValues></_>
    <_>
      <internalNodes>
        0 -1 60208 -5.6921155191957951e-05</internalNodes>
      <leafValues>
        -5.4218196868896484e-01 3.3651438355445862e-01</leafValues></_>
    <_>
      <internalNodes>
        0 -1 563118 -3.1655185011914000e-05</internalNodes>
      <leafValues>
        -4.9650931358337402e-01 3.7836810946464539e-01</leafValues></_></weakClassifiers></stage6>
</opencv_storage>
