<?xml version="1.0"?>
<opencv_storage>
<stage11>
  <maxWeakCount>5</maxWeakCount>
  <stageThreshold>-6.6958755254745483e-01</stageThreshold>
  <weakClassifiers>
    <_>
      <internalNodes>
        0 -1 938490 -3.6071248352527618e-02</internalNodes>
      <leafValues>
        -5.1417005062103271e-01 5.0943398475646973e-01</leafValues></_>
    <_>
      <internalNodes>
        0 -1 617731 -2.1759658120572567e-03</internalNodes>
      <leafValues>
        5.2003008127212524e-01 -2.7904757857322693e-01</leafValues></_>
    <_>
      <internalNodes>
        0 -1 539389 -1.5827340539544821e-03</internalNodes>
      <leafValues>
        5.7407724857330322e-01 -2.4698801338672638e-01</leafValues></_>
    <_>
      <internalNodes>
        0 -1 118715 -6.8020715843886137e-04</internalNodes>
      <leafValues>
        -5.7585906982421875e-01 2.6943224668502808e-01</leafValues></_>
    <_>
      <internalNodes>
        0 -1 1226239 -4.8211319372057915e-03</internalNodes>
      <leafValues>
        -6.9789183139801025e-01 2.1865294873714447e-01</leafValues></_></weakClassifiers></stage11>
</opencv_storage>
