<?xml version="1.0"?>
<opencv_storage>
<stage2>
  <maxWeakCount>5</maxWeakCount>
  <stageThreshold>-7.4984925985336304e-01</stageThreshold>
  <weakClassifiers>
    <_>
      <internalNodes>
        0 -1 8902 -5.6674808263778687e-02</internalNodes>
      <leafValues>
        5.3125000000000000e-01 -5.6779658794403076e-01</leafValues></_>
    <_>
      <internalNodes>
        0 -1 1071602 3.8361833430826664e-03</internalNodes>
      <leafValues>
        -3.1478324532508850e-01 7.0580583810806274e-01</leafValues></_>
    <_>
      <internalNodes>
        0 -1 1921382 1.1317010968923569e-02</internalNodes>
      <leafValues>
        -3.2439243793487549e-01 7.1775168180465698e-01</leafValues></_>
    <_>
      <internalNodes>
        0 -1 1093450 -3.4369244240224361e-03</internalNodes>
      <leafValues>
        7.3048752546310425e-01 -2.6937478780746460e-01</leafValues></_>
    <_>
      <internalNodes>
        0 -1 1913426 -1.6711847856640816e-03</internalNodes>
      <leafValues>
        7.3968619108200073e-01 -2.7336454391479492e-01</leafValues></_></weakClassifiers></stage2>
</opencv_storage>
