<?xml version="1.0"?>
<opencv_storage>
<stage1>
  <maxWeakCount>6</maxWeakCount>
  <stageThreshold>-1.0801388025283813e+00</stageThreshold>
  <weakClassifiers>
    <_>
      <internalNodes>
        0 -1 126623 -1.1573311686515808e-01</internalNodes>
      <leafValues>
        7.3584908246994019e-01 -5.6275302171707153e-01</leafValues></_>
    <_>
      <internalNodes>
        0 -1 968854 -1.4437529444694519e-01</internalNodes>
      <leafValues>
        -5.8951622247695923e-01 3.8612917065620422e-01</leafValues></_>
    <_>
      <internalNodes>
        0 -1 1238958 -2.3757279268465936e-04</internalNodes>
      <leafValues>
        4.4535374641418457e-01 -4.7015306353569031e-01</leafValues></_>
    <_>
      <internalNodes>
        0 -1 1508949 3.0459500849246979e-03</internalNodes>
      <leafValues>
        -3.3403480052947998e-01 6.8089181184768677e-01</leafValues></_>
    <_>
      <internalNodes>
        0 -1 1251728 4.3957593152299523e-04</internalNodes>
      <leafValues>
        -2.7055284380912781e-01 6.2729668617248535e-01</leafValues></_>
    <_>
      <internalNodes>
        0 -1 401426 -7.1031160652637482e-02</internalNodes>
      <leafValues>
        -6.6648513078689575e-01 3.4935408830642700e-01</leafValues></_></weakClassifiers></stage1>
</opencv_storage>
