<?xml version="1.0"?>
<opencv_storage>
<stage9>
  <maxWeakCount>12</maxWeakCount>
  <stageThreshold>-4.3650108575820923e-01</stageThreshold>
  <weakClassifiers>
    <_>
      <internalNodes>
        0 -1 2025118 -1.2023029557894915e-04</internalNodes>
      <leafValues>
        -1.4545454084873199e-01 5.3559321165084839e-01</leafValues></_>
    <_>
      <internalNodes>
        0 -1 2031414 5.2652008889708668e-05</internalNodes>
      <leafValues>
        2.7838659286499023e-01 -2.7530977129936218e-01</leafValues></_>
    <_>
      <internalNodes>
        0 -1 33294 -6.4134746789932251e-02</internalNodes>
      <leafValues>
        8.4781491756439209e-01 -9.1364160180091858e-02</leafValues></_>
    <_>
      <internalNodes>
        0 -1 1975052 -4.2197643779218197e-04</internalNodes>
      <leafValues>
        -4.5602595806121826e-01 1.6486130654811859e-01</leafValues></_>
    <_>
      <internalNodes>
        0 -1 2025921 1.8915883265435696e-04</internalNodes>
      <leafValues>
        2.1808753907680511e-01 -3.5787665843963623e-01</leafValues></_>
    <_>
      <internalNodes>
        0 -1 124613 -2.4980712623801082e-05</internalNodes>
      <leafValues>
        -3.3655312657356262e-01 2.2737896442413330e-01</leafValues></_>
    <_>
      <internalNodes>
        0 -1 1399045 6.6528161987662315e-03</internalNodes>
      <leafValues>
        -1.1633230000734329e-01 6.8241971731185913e-01</leafValues></_>
    <_>
      <internalNodes>
        0 -1 100834 -1.1877530778292567e-04</internalNodes>
      <leafValues>
        -4.5794296264648438e-01 1.7648959159851074e-01</leafValues></_>
    <_>
      <internalNodes>
        0 -1 1671457 -8.1455975305289030e-05</internalNodes>
      <leafValues>
        -3.6127570271492004e-01 2.3589432239532471e-01</leafValues></_>
    <_>
      <internalNodes>
        0 -1 1861915 4.1094519197940826e-02</internalNodes>
      <leafValues>
        1.2195993214845657e-01 -8.4940034151077271e-01</leafValues></_>
    <_>
      <internalNodes>
        0 -1 1290962 -2.4936033412814140e-02</internalNodes>
      <leafValues>
        -5.6506556272506714e-01 1.4015795290470123e-01</leafValues></_>
    <_>
      <internalNodes>
        0 -1 32566 3.2515111565589905e-01</internalNodes>
      <leafValues>
        1.2776254117488861e-01 -7.3866677284240723e-01</leafValues></_></weakClassifiers></stage9>
</opencv_storage>
