<?xml version="1.0"?>
<opencv_storage>
<stage17>
  <maxWeakCount>13</maxWeakCount>
  <stageThreshold>-4.3465790152549744e-01</stageThreshold>
  <weakClassifiers>
    <_>
      <internalNodes>
        0 -1 362427 1.6674690414220095e-04</internalNodes>
      <leafValues>
        5.4188036918640137e-01 -1.4782609045505524e-01</leafValues></_>
    <_>
      <internalNodes>
        0 -1 161889 -2.2202657535672188e-02</internalNodes>
      <leafValues>
        8.2512199878692627e-01 -7.9568147659301758e-02</leafValues></_>
    <_>
      <internalNodes>
        0 -1 587085 -2.4482803419232368e-03</internalNodes>
      <leafValues>
        6.0482108592987061e-01 -1.6241294145584106e-01</leafValues></_>
    <_>
      <internalNodes>
        0 -1 2024918 2.9156788514228538e-05</internalNodes>
      <leafValues>
        2.3685057461261749e-01 -3.6373075842857361e-01</leafValues></_>
    <_>
      <internalNodes>
        0 -1 1866863 -7.3892821092158556e-05</internalNodes>
      <leafValues>
        -4.3099695444107056e-01 2.1625471115112305e-01</leafValues></_>
    <_>
      <internalNodes>
        0 -1 1352547 3.8973271846771240e-02</internalNodes>
      <leafValues>
        -1.8154506385326385e-01 5.0125634670257568e-01</leafValues></_>
    <_>
      <internalNodes>
        0 -1 1001519 4.0329839102923870e-03</internalNodes>
      <leafValues>
        -1.5846073627471924e-01 5.5681657791137695e-01</leafValues></_>
    <_>
      <internalNodes>
        0 -1 1983018 1.8127271323464811e-04</internalNodes>
      <leafValues>
        2.1613419055938721e-01 -4.4902521371841431e-01</leafValues></_>
    <_>
      <internalNodes>
        0 -1 117818 -2.0091557234991342e-04</internalNodes>
      <leafValues>
        -4.3494871258735657e-01 2.0092080533504486e-01</leafValues></_>
    <_>
      <internalNodes>
        0 -1 474277 3.9914499211590737e-05</internalNodes>
      <leafValues>
        2.3288439214229584e-01 -3.8106748461723328e-01</leafValues></_>
    <_>
      <internalNodes>
        0 -1 1970081 1.5182886272668839e-02</internalNodes>
      <leafValues>
        -1.3368181884288788e-01 6.7930412292480469e-01</leafValues></_>
    <_>
      <internalNodes>
        0 -1 251966 7.3869631160050631e-04</internalNodes>
      <leafValues>
        1.6536946594715118e-01 -5.6079220771789551e-01</leafValues></_>
    <_>
      <internalNodes>
        0 -1 1183712 -4.7863321378827095e-03</internalNodes>
      <leafValues>
        6.5035855770111084e-01 -1.3796260952949524e-01</leafValues></_></weakClassifiers></stage17>
</opencv_storage>
