<?xml version="1.0"?>
<opencv_storage>
<stage18>
  <maxWeakCount>16</maxWeakCount>
  <stageThreshold>-4.8469907045364380e-01</stageThreshold>
  <weakClassifiers>
    <_>
      <internalNodes>
        0 -1 2014786 -7.3037619586102664e-05</internalNodes>
      <leafValues>
        -3.4482758492231369e-02 5.4954952001571655e-01</leafValues></_>
    <_>
      <internalNodes>
        0 -1 37048 -3.8744285702705383e-02</internalNodes>
      <leafValues>
        5.6905579566955566e-01 -1.4368191361427307e-01</leafValues></_>
    <_>
      <internalNodes>
        0 -1 792720 -3.7583247758448124e-03</internalNodes>
      <leafValues>
        5.0423282384872437e-01 -1.6975203156471252e-01</leafValues></_>
    <_>
      <internalNodes>
        0 -1 128247 1.0223283898085356e-03</internalNodes>
      <leafValues>
        -1.8492367863655090e-01 6.1705827713012695e-01</leafValues></_>
    <_>
      <internalNodes>
        0 -1 250058 1.9930234178900719e-02</internalNodes>
      <leafValues>
        -1.5279984474182129e-01 5.5386209487915039e-01</leafValues></_>
    <_>
      <internalNodes>
        0 -1 2014398 5.7931087212637067e-05</internalNodes>
      <leafValues>
        2.2932526469230652e-01 -3.8741409778594971e-01</leafValues></_>
    <_>
      <internalNodes>
        0 -1 894246 -5.0055351108312607e-02</internalNodes>
      <leafValues>
        4.4339349865913391e-01 -2.0423378050327301e-01</leafValues></_>
    <_>
      <internalNodes>
        0 -1 577320 -5.1586967892944813e-03</internalNodes>
      <leafValues>
        -1.5728044509887695e-01 4.4901010394096375e-01</leafValues></_>
    <_>
      <internalNodes>
        0 -1 867941 -8.4163751453161240e-03</internalNodes>
      <leafValues>
        3.3236309885978699e-01 -2.1577176451683044e-01</leafValues></_>
    <_>
      <internalNodes>
        0 -1 2031351 3.4450762905180454e-04</internalNodes>
      <leafValues>
        1.4895837008953094e-01 -4.8905861377716064e-01</leafValues></_>
    <_>
      <internalNodes>
        0 -1 1498560 -6.9138146936893463e-03</internalNodes>
      <leafValues>
        -1.2729471921920776e-01 6.0242015123367310e-01</leafValues></_>
    <_>
      <internalNodes>
        0 -1 1386645 -5.0909194396808743e-04</internalNodes>
      <leafValues>
        4.6972948312759399e-01 -1.5288884937763214e-01</leafValues></_>
    <_>
      <internalNodes>
        0 -1 1609841 -3.1072791898623109e-04</internalNodes>
      <leafValues>
        3.7316137552261353e-01 -2.0259742438793182e-01</leafValues></_>
    <_>
      <internalNodes>
        0 -1 300413 -3.3872157335281372e-01</internalNodes>
      <leafValues>
        6.2993615865707397e-01 -1.1149863153696060e-01</leafValues></_>
    <_>
      <internalNodes>
        0 -1 11608 -3.6394859198480844e-03</internalNodes>
      <leafValues>
        5.5959308147430420e-01 -1.3090823590755463e-01</leafValues></_>
    <_>
      <internalNodes>
        0 -1 1159795 8.7514361366629601e-03</internalNodes>
      <leafValues>
        -1.1045358330011368e-01 6.2812972068786621e-01</leafValues></_></weakClassifiers></stage18>
</opencv_storage>
