<?xml version="1.0"?>
<opencv_storage>
<stage13>
  <maxWeakCount>12</maxWeakCount>
  <stageThreshold>-4.9679893255233765e-01</stageThreshold>
  <weakClassifiers>
    <_>
      <internalNodes>
        0 -1 1757080 -1.7780819907784462e-02</internalNodes>
      <leafValues>
        5.6650245189666748e-01 -4.9450549483299255e-01</leafValues></_>
    <_>
      <internalNodes>
        0 -1 1982981 -2.2604786790907383e-03</internalNodes>
      <leafValues>
        2.2608476877212524e-01 -4.5189440250396729e-01</leafValues></_>
    <_>
      <internalNodes>
        0 -1 985651 -8.9174240827560425e-02</internalNodes>
      <leafValues>
        -3.4075579047203064e-01 2.6875245571136475e-01</leafValues></_>
    <_>
      <internalNodes>
        0 -1 1524719 1.6826933715492487e-03</internalNodes>
      <leafValues>
        -1.9113335013389587e-01 5.6617778539657593e-01</leafValues></_>
    <_>
      <internalNodes>
        0 -1 1800537 7.8884772956371307e-03</internalNodes>
      <leafValues>
        -1.1277509480714798e-01 8.6592370271682739e-01</leafValues></_>
    <_>
      <internalNodes>
        0 -1 258833 -1.6192957758903503e-01</internalNodes>
      <leafValues>
        1.0622832179069519e-01 -7.6381540298461914e-01</leafValues></_>
    <_>
      <internalNodes>
        0 -1 1866702 2.8353994712233543e-03</internalNodes>
      <leafValues>
        -1.3570490479469299e-01 6.3431888818740845e-01</leafValues></_>
    <_>
      <internalNodes>
        0 -1 490727 -2.6093755877809599e-05</internalNodes>
      <leafValues>
        -3.2348203659057617e-01 2.5294658541679382e-01</leafValues></_>
    <_>
      <internalNodes>
        0 -1 1648902 -2.2615813650190830e-03</internalNodes>
      <leafValues>
        7.1415764093399048e-01 -1.3069131970405579e-01</leafValues></_>
    <_>
      <internalNodes>
        0 -1 75964 9.9030113779008389e-04</internalNodes>
      <leafValues>
        -1.4005480706691742e-01 5.1838958263397217e-01</leafValues></_>
    <_>
      <internalNodes>
        0 -1 1652053 -2.0669372752308846e-03</internalNodes>
      <leafValues>
        8.0554497241973877e-01 -9.6855826675891876e-02</leafValues></_>
    <_>
      <internalNodes>
        0 -1 118425 4.0508836507797241e-02</internalNodes>
      <leafValues>
        1.4430953562259674e-01 -6.7024099826812744e-01</leafValues></_></weakClassifiers></stage13>
</opencv_storage>
